{
   "n_input": 16,
   "n_hidden": 2,
   "n_output": 4,
   "input_names": [
      "VMAX0",
      "VMXC",
      "NCI",
      "OFDV",
      "DSDV",
      "LGDV",
      "HWDV",
      "AVDV",
      "DV12",
      "SLAT",
      "SSTN",
      "SHDC",
      "DTL",
      "T200",
      "D200",
      "RHMD"
   ],
   "output_names": [
      "mu",
      "sigma",
      "gamma",
      "tau"
   ],
   "input_traits": {
      "n_input": 16,
      "mean": [
         58.825439453125,
         58.8740348815918,
         3.980064630508423,
         2.14967679977417,
         1.0968751907348633,
         -0.45592671632766724,
         -0.13507544994354248,
         -0.5058189630508423,
         2.381465435028076,
         24.66896629333496,
         27.780498504638672,
         15.75377082824707,
         862.14892578125,
         -53.21174621582031,
         32.46390914916992,
         55.98518371582031
      ],
      "std": [
         27.820810317993164,
         25.27724266052246,
         0.14358104765415192,
         5.488530158996582,
         4.086856842041016,
         4.078728199005127,
         5.850310802459717,
         5.973985195159912,
         9.860939025878906,
         7.871244430541992,
         1.9239915609359741,
         9.076600074768066,
         690.0394287109375,
         1.7187079191207886,
         33.187461853027344,
         10.075008392333984
      ]
   },
   "hidden_traits": [
      {
         "n_input_connections": 16,
         "n_output_connections": 15,
         "weights": [
            [
               -0.1650562286376953,
               -0.06844722479581833,
               0.1201571673154831,
               -0.14042091369628906,
               0.08572684973478317,
               -0.13975073397159576,
               -0.27294686436653137,
               0.18745100498199463,
               -0.18868398666381836,
               0.08721444755792618,
               0.0997437834739685,
               0.1947648972272873,
               0.105333112180233,
               0.21419885754585266,
               -0.08439954370260239
            ],
            [
               -0.81752610206604,
               0.18100911378860474,
               0.00809807050973177,
               0.018434889614582062,
               -0.11196064203977585,
               -0.06232317164540291,
               0.14287692308425903,
               0.0706024095416069,
               0.17012706398963928,
               -0.16156481206417084,
               -0.03543874993920326,
               0.06017397716641426,
               -0.14172829687595367,
               -0.10555598884820938,
               0.2983910143375397
            ],
            [
               0.052032966166734695,
               0.08853514492511749,
               -0.1994967758655548,
               0.13805390894412994,
               0.1597149819135666,
               -0.1004595160484314,
               0.2960212528705597,
               -0.011288206093013287,
               -0.016475602984428406,
               0.01994990184903145,
               0.09432932734489441,
               -0.003186190500855446,
               0.37017059326171875,
               -0.08502919971942902,
               -0.04267200827598572
            ],
            [
               0.12106862664222717,
               0.2215568572282791,
               0.06706656515598297,
               -0.04321981593966484,
               0.03155925124883652,
               -0.3104998767375946,
               0.0013636325020343065,
               0.03316116705536842,
               -0.006508820690214634,
               0.02220841497182846,
               0.2395910620689392,
               -0.009985829703509808,
               0.08069860935211182,
               0.18981145322322845,
               0.05004880204796791
            ],
            [
               -0.231349378824234,
               0.1089615598320961,
               0.08676772564649582,
               0.15901313722133636,
               0.06679698824882507,
               -0.2118174284696579,
               -0.19382444024085999,
               0.1271698921918869,
               0.07220999151468277,
               0.14200128614902496,
               -0.022203072905540466,
               -0.02081947587430477,
               -0.243268683552742,
               -0.17629070580005646,
               0.010422827675938606
            ],
            [
               0.14084669947624207,
               0.09555432945489883,
               0.10749389231204987,
               -0.05973745509982109,
               0.09511503577232361,
               -0.07666236162185669,
               -0.03992248326539993,
               0.005696562584489584,
               0.018980635330080986,
               0.014382313936948776,
               0.09411632269620895,
               -0.07974379509687424,
               0.12662440538406372,
               0.18974290788173676,
               0.0018555161077529192
            ],
            [
               0.021101344376802444,
               0.07196196913719177,
               -0.09450458735227585,
               -0.1812327653169632,
               -0.10608718544244766,
               0.00322700385004282,
               0.25971341133117676,
               0.005829061381518841,
               -0.030411703512072563,
               0.15902194380760193,
               -0.12660634517669678,
               0.09600430727005005,
               0.11967724561691284,
               -0.09305969625711441,
               -0.03164335712790489
            ],
            [
               0.14088182151317596,
               -0.1264251172542572,
               0.0511091947555542,
               0.12054188549518585,
               0.05531550571322441,
               -0.004071726463735104,
               -0.10067053884267807,
               0.10600808262825012,
               -0.059837110340595245,
               -0.2880879044532776,
               0.10462401807308197,
               -0.002919982187449932,
               -0.02483087219297886,
               0.11054638028144836,
               0.031815171241760254
            ],
            [
               -0.1966315060853958,
               0.03412393108010292,
               0.08622218668460846,
               0.0198277048766613,
               -0.11085168272256851,
               0.11096524447202682,
               -0.1518545001745224,
               0.13703584671020508,
               -0.018830273300409317,
               -0.1338922083377838,
               -0.024731023237109184,
               0.02422107197344303,
               0.19744183123111725,
               0.32259249687194824,
               0.084098681807518
            ],
            [
               0.07626578211784363,
               0.056207746267318726,
               0.1756427139043808,
               -0.01147741824388504,
               -0.35714787244796753,
               0.1942516714334488,
               -0.25754472613334656,
               0.3740309178829193,
               0.051220282912254333,
               0.06642750650644302,
               0.22883829474449158,
               -0.42260563373565674,
               0.10616002976894379,
               -0.3944225013256073,
               0.047220975160598755
            ],
            [
               -0.12195999175310135,
               0.05944662541151047,
               0.018784761428833008,
               -0.15066596865653992,
               0.12270037829875946,
               -0.0710216835141182,
               -0.0226523969322443,
               0.2506830096244812,
               0.23206932842731476,
               0.2057945281267166,
               -0.08056053519248962,
               -0.0221342071890831,
               -0.017587359994649887,
               -0.13032691180706024,
               0.4440678358078003
            ],
            [
               0.14052264392375946,
               0.26147592067718506,
               -0.2562643587589264,
               -0.26369020342826843,
               -0.07421190291643143,
               0.19969961047172546,
               -0.0021812948398292065,
               0.2845483124256134,
               0.011580992490053177,
               0.055411696434020996,
               0.12295162677764893,
               0.03659646958112717,
               -0.018473008647561073,
               -0.010406391695141792,
               -0.07174871861934662
            ],
            [
               -0.2659747898578644,
               -0.15052904188632965,
               0.03093980997800827,
               0.11263105273246765,
               0.17988471686840057,
               -0.08638518303632736,
               0.01474333181977272,
               -0.2585037350654602,
               -0.25948816537857056,
               -0.40602755546569824,
               -0.057879671454429626,
               -0.29515528678894043,
               0.021956782788038254,
               0.05496665835380554,
               -0.06296401470899582
            ],
            [
               0.06182126700878143,
               0.08378975838422775,
               0.09300351142883301,
               -0.2405242621898651,
               0.15199314057826996,
               0.16213633120059967,
               0.04935658723115921,
               0.12214164435863495,
               -0.126966655254364,
               0.00824765395373106,
               -0.14442342519760132,
               0.03579017519950867,
               -0.18712033331394196,
               0.22922122478485107,
               -0.025958826765418053
            ],
            [
               -0.044869743287563324,
               0.07804042100906372,
               0.06275851279497147,
               -0.0366382896900177,
               -0.1740294098854065,
               -0.14428170025348663,
               -0.3346351981163025,
               -0.12519976496696472,
               0.01977124996483326,
               0.0897550955414772,
               -0.008905492722988129,
               0.03888231888413429,
               -0.18001100420951843,
               -0.14656205475330353,
               -0.031315822154283524
            ],
            [
               -0.22809778153896332,
               0.030803676694631577,
               0.27086302638053894,
               -0.2595473825931549,
               -0.025167100131511688,
               -0.0017084941500797868,
               -0.01849077269434929,
               -0.03979642689228058,
               0.08645711094141006,
               -0.1916099488735199,
               0.04539913684129715,
               -0.10824510455131531,
               -0.14046594500541687,
               -0.032479964196681976,
               -0.00897600594907999
            ]
         ],
         "bias": [
            0.11229110509157181,
            0.2604827880859375,
            -0.08460891246795654,
            -0.08828635513782501,
            0.11041942983865738,
            0.13092219829559326,
            0.25609010457992554,
            0.07899043709039688,
            0.30648577213287354,
            -0.08412016183137894,
            0.17008650302886963,
            0.31097614765167236,
            0.36662161350250244,
            0.08124241977930069,
            0.18732121586799622
         ],
         "activation": "RELU"
      },
      {
         "n_input_connections": 15,
         "n_output_connections": 10,
         "weights": [
            [
               0.061571329832077026,
               -0.45521971583366394,
               0.23409372568130493,
               -0.7482089996337891,
               -0.6103399395942688,
               -0.28863880038261414,
               -0.3638354539871216,
               -0.46967998147010803,
               -0.3929155170917511,
               -0.10383648425340652
            ],
            [
               0.13255828619003296,
               0.1468360424041748,
               -0.43831348419189453,
               0.03805745020508766,
               0.017409250140190125,
               -0.0337693989276886,
               0.0658545196056366,
               0.19314713776111603,
               0.1614769697189331,
               -0.14078384637832642
            ],
            [
               -0.09741468727588654,
               -0.05961793661117554,
               0.2744750678539276,
               -0.02007879503071308,
               0.16835664212703705,
               0.2544902265071869,
               0.23028750717639923,
               -0.06415822356939316,
               -0.07390006631612778,
               0.2926280200481415
            ],
            [
               0.1873932033777237,
               0.15423299372196198,
               -0.007545610424131155,
               0.47697511315345764,
               -0.14875055849552155,
               -0.04495051130652428,
               -0.13149665296077728,
               0.34156277775764465,
               0.2851281762123108,
               -0.11556432396173477
            ],
            [
               -0.15801537036895752,
               -0.24431204795837402,
               0.3375494182109833,
               0.05277637764811516,
               0.1046813353896141,
               0.052883125841617584,
               0.09407765418291092,
               -0.20153586566448212,
               -0.21764515340328217,
               0.2238427847623825
            ],
            [
               0.33676275610923767,
               0.2521957755088806,
               0.002588754752650857,
               0.1671145111322403,
               -0.10549744963645935,
               -0.18218015134334564,
               -0.15358617901802063,
               0.20094327628612518,
               0.17373506724834442,
               -0.35653156042099
            ],
            [
               0.3686102330684662,
               0.20792493224143982,
               -0.037655945867300034,
               0.13548259437084198,
               0.3902888596057892,
               0.09145035594701767,
               0.1480741649866104,
               0.2683100402355194,
               0.2848369777202606,
               -0.06375758349895477
            ],
            [
               -0.3858962655067444,
               -0.30542558431625366,
               0.11275341361761093,
               -0.16550028324127197,
               0.2524785101413727,
               0.24183300137519836,
               0.145744189620018,
               -0.2759307622909546,
               -0.28940722346305847,
               0.16600559651851654
            ],
            [
               0.2816419005393982,
               0.20548465847969055,
               -0.2904163599014282,
               0.13199880719184875,
               0.13527660071849823,
               -0.06988511979579926,
               -0.011661874130368233,
               0.2751478850841522,
               0.27878376841545105,
               -0.09612670540809631
            ],
            [
               -0.039841994643211365,
               -0.00096483452944085,
               0.32887765765190125,
               -0.22161105275154114,
               0.28394728899002075,
               0.3660758137702942,
               0.2703249454498291,
               0.07879228889942169,
               0.023798950016498566,
               0.2819676697254181
            ],
            [
               -0.29251328110694885,
               -0.27811557054519653,
               0.009939109906554222,
               -0.08680762350559235,
               0.1620076596736908,
               0.15894420444965363,
               0.30769985914230347,
               -0.12859869003295898,
               -0.2520047426223755,
               0.14947454631328583
            ],
            [
               -0.007222514133900404,
               0.014147385023534298,
               0.13348548114299774,
               0.0827048122882843,
               0.24927270412445068,
               0.27638182044029236,
               0.25091174244880676,
               0.10525929182767868,
               0.19133912026882172,
               0.23161056637763977
            ],
            [
               -0.02367694117128849,
               0.07529235631227493,
               0.31563669443130493,
               -0.03801451995968819,
               0.29226943850517273,
               0.3470807373523712,
               0.3479936718940735,
               -0.03608628362417221,
               -0.005362355150282383,
               0.3255006968975067
            ],
            [
               0.03206583857536316,
               0.1146617978811264,
               -0.018715716898441315,
               0.2929922640323639,
               0.1740415096282959,
               0.12392908334732056,
               0.24124775826931,
               0.2620505094528198,
               0.1993541419506073,
               0.07075899094343185
            ],
            [
               0.36295196413993835,
               0.29161733388900757,
               -0.0803690105676651,
               0.05678873136639595,
               -0.24091841280460358,
               -0.24336862564086914,
               -0.210918128490448,
               0.1217472031712532,
               0.22792187333106995,
               -0.24953201413154602
            ]
         ],
         "bias": [
            0.06251210719347,
            0.139869824051857,
            0.14458636939525604,
            0.11014970391988754,
            0.17193888127803802,
            0.12196889519691467,
            0.1594778448343277,
            0.06857097148895264,
            0.08348891139030457,
            0.22981198132038116
         ],
         "activation": "RELU"
      }
   ],
   "output_traits": [
      {
         "n_input_connections": 10,
         "weights": [
            -0.6046504378318787,
            -0.28501245379447937,
            0.261258602142334,
            -0.1524115800857544,
            0.2810768485069275,
            0.4130217730998993,
            0.32004788517951965,
            -0.1965716928243637,
            -0.25680994987487793,
            0.5292789936065674
         ],
         "bias": -0.15903176367282867,
         "transformation": "LINEAR",
         "mean": -0.078125,
         "std": 11.030269622802734
      },
      {
         "n_input_connections": 10,
         "weights": [
            -0.1521933227777481,
            0.26318445801734924,
            -0.5610262751579285,
            0.38779693841934204,
            0.40486347675323486,
            0.17765209078788757,
            0.2722340524196625,
            0.3724837005138397,
            0.3160671591758728,
            -0.08047815412282944
         ],
         "bias": -0.4472309648990631,
         "transformation": "SOFTPLUS",
         "mean": 0.0,
         "std": 11.030269622802734
      },
      {
         "n_input_connections": 10,
         "weights": [
            -0.07506933808326721,
            -0.10752981901168823,
            0.11647120118141174,
            -0.2915840148925781,
            0.06511545926332474,
            0.09451720118522644,
            0.043741628527641296,
            -0.09226502478122711,
            -0.050092652440071106,
            0.05978238582611084
         ],
         "bias": -0.11709079891443253,
         "transformation": "LINEAR",
         "mean": 0.0,
         "std": 1.0
      },
      {
         "n_input_connections": 10,
         "weights": [
            0.0,
            0.0,
            0.0,
            0.0,
            0.0,
            0.0,
            0.0,
            0.0,
            0.0,
            0.0
         ],
         "bias": 0.0,
         "transformation": "SOFTPLUS",
         "mean": 1.0,
         "std": 0.0
      }
   ],
   "test_cases": {
      "x_test": [
         [
            30.0,
            43.5,
            4.0,
            1.5,
            4.5,
            -5.5,
            1.5,
            -0.5,
            0.0,
            11.1,
            28.6,
            7.1,
            812.4,
            -53.5,
            97.0,
            75.0
         ],
         [
            90.0,
            81.8,
            4.0,
            -1.8,
            -1.8,
            0.2,
            -0.8,
            2.2,
            -10.0,
            35.3,
            27.7,
            19.7,
            123.6,
            -50.3,
            65.2,
            42.0
         ]
      ],
      "predictions": [
         [
            0.23195606470108032,
            9.098888397216797,
            -0.18818049132823944,
            1.0
         ],
         [
            7.168415546417236,
            6.366790771484375,
            0.054504744708538055,
            1.0
         ]
      ]
   }
}