{
   "n_input": 22,
   "n_hidden": 2,
   "n_output": 5,
   "input_names": [
      "NCT",
      "VMAX0",
      "AVDX",
      "EMDX",
      "EGDX",
      "HWDX",
      "AVDY",
      "EMDY",
      "EGDY",
      "HWDY",
      "LONC",
      "LATC",
      "VMXC",
      "DV12",
      "SLAT",
      "SHDC",
      "SSTN",
      "DTL",
      "DSDV",
      "LGDV",
      "HWDV",
      "AVDV"
   ],
   "output_names": [
      "mu_u",
      "mu_v",
      "sigma_u",
      "sigma_v",
      "rho"
   ],
   "input_traits": {
      "n_input": 22,
      "mean": [
         3.534332752227783,
         61.548065185546875,
         9.801124572753906,
         -6.520933151245117,
         -10.435294151306152,
         7.142157554626465,
         4.035123825073242,
         -1.5517686605453491,
         -6.3413238525390625,
         3.857844591140747,
         127.73637390136719,
         17.71124267578125,
         61.073402404785156,
         2.8630878925323486,
         17.03308868408203,
         11.350309371948242,
         27.73163414001465,
         1059.42041015625,
         1.974865198135376,
         -1.0858094692230225,
         -0.9781523942947388,
         0.03578861430287361
      ],
      "std": [
         0.6240823864936829,
         27.492977142333984,
         31.4771785736084,
         32.963165283203125,
         41.25093078613281,
         33.880828857421875,
         28.330814361572266,
         26.447593688964844,
         35.16525650024414,
         31.54810905456543,
         19.220975875854492,
         3.976970672607422,
         23.897825241088867,
         11.312199592590332,
         3.6608941555023193,
         7.036797523498535,
         1.4189189672470093,
         656.7783203125,
         4.927425861358643,
         4.281047344207764,
         7.15739107131958,
         6.743235111236572
      ]
   },
   "hidden_traits": [
      {
         "n_input": 22,
         "n_output": 5,
         "weights": [
            [
               -0.03078555129468441,
               0.10746165364980698,
               -0.20357513427734375,
               0.08417116850614548,
               0.00618217745795846
            ],
            [
               0.06433911621570587,
               0.0402512364089489,
               -0.15129216015338898,
               0.018541300669312477,
               0.06361847370862961
            ],
            [
               -0.06279531866312027,
               -0.05486574396491051,
               0.01739397644996643,
               0.18472996354103088,
               -0.2520749568939209
            ],
            [
               0.2820901572704315,
               0.31150880455970764,
               0.07396353036165237,
               0.0027130665257573128,
               0.32440778613090515
            ],
            [
               -0.28946933150291443,
               0.013555917888879776,
               0.15671168267726898,
               -0.22019962966442108,
               -0.07022234797477722
            ],
            [
               0.1283109039068222,
               -0.017731189727783203,
               -0.264155775308609,
               0.26170673966407776,
               0.0931834876537323
            ],
            [
               -0.0348505936563015,
               -0.14283782243728638,
               -0.19491229951381683,
               0.065017469227314,
               -0.0704176053404808
            ],
            [
               -0.33632948994636536,
               -0.020613644272089005,
               0.018280208110809326,
               0.07381972670555115,
               -0.017058812081813812
            ],
            [
               -0.09727766364812851,
               0.18653567135334015,
               0.06824924051761627,
               0.11116882413625717,
               -0.05171115696430206
            ],
            [
               0.35266876220703125,
               0.18201269209384918,
               -0.06438007950782776,
               -0.3232482671737671,
               0.2112666517496109
            ],
            [
               0.3493625521659851,
               -0.49314945936203003,
               0.05157823488116264,
               0.17808718979358673,
               -0.5462594628334045
            ],
            [
               0.2667796015739441,
               -0.21299061179161072,
               0.34015828371047974,
               0.23047855496406555,
               0.22392402589321136
            ],
            [
               -0.34565234184265137,
               0.5335003137588501,
               -0.01383165642619133,
               -0.25989362597465515,
               -0.04234769195318222
            ],
            [
               0.1278351992368698,
               -0.1696641743183136,
               0.09600856155157089,
               -0.20350977778434753,
               -0.020538847893476486
            ],
            [
               -0.21420060098171234,
               0.3524157702922821,
               -0.3660317361354828,
               -0.3361395001411438,
               -0.20474687218666077
            ],
            [
               0.09774375706911087,
               -0.17258158326148987,
               -0.16072490811347961,
               -0.39165836572647095,
               0.10973519831895828
            ],
            [
               0.09406350553035736,
               -0.09320170432329178,
               -0.011226693168282509,
               0.14564041793346405,
               0.23752669990062714
            ],
            [
               -0.2401929497718811,
               -0.09982581436634064,
               -0.22453032433986664,
               0.1895671784877777,
               -0.3433944880962372
            ],
            [
               -0.00012498759315349162,
               -0.0150294816121459,
               0.2554861009120941,
               0.12927769124507904,
               -0.1077207550406456
            ],
            [
               -0.26972076296806335,
               0.0520436055958271,
               0.15259964764118195,
               -0.0276811420917511,
               0.3016919195652008
            ],
            [
               0.15787535905838013,
               -0.11560077220201492,
               -0.07547631114721298,
               -0.05623729154467583,
               0.2502571940422058
            ],
            [
               0.18656174838542938,
               -0.11780138313770294,
               0.12341736257076263,
               0.03545276075601578,
               -0.07511703670024872
            ]
         ],
         "bias": [
            0.05851741507649422,
            0.37901926040649414,
            0.45990055799484253,
            0.1595401018857956,
            0.06334183365106583
         ],
         "activation": "RELU"
      },
      {
         "n_input": 5,
         "n_output": 5,
         "weights": [
            [
               0.35884901881217957,
               0.24512052536010742,
               -0.23374001681804657,
               0.06347011774778366,
               0.6264159679412842
            ],
            [
               -0.748374879360199,
               -0.8976002931594849,
               -0.5687016248703003,
               -0.021082241088151932,
               -0.3616834282875061
            ],
            [
               0.2804197371006012,
               0.38893693685531616,
               0.11867641657590866,
               0.5194284915924072,
               0.10811935365200043
            ],
            [
               0.2951386570930481,
               0.21300391852855682,
               0.464443564414978,
               0.07579798996448517,
               0.27592599391937256
            ],
            [
               0.29696211218833923,
               0.49217063188552856,
               0.2610683739185333,
               0.5804201364517212,
               0.1476401388645172
            ]
         ],
         "bias": [
            0.12182719260454178,
            0.15628789365291595,
            0.1869397759437561,
            -0.05405605211853981,
            0.04211704432964325
         ],
         "activation": "RELU"
      }
   ],
   "output_traits": [
      {
         "n_input": 5,
         "weights": [
            -0.06185346469283104,
            0.12036202847957611,
            -0.5594574213027954,
            0.34485265612602234,
            -0.08357849717140198
         ],
         "bias": -0.0497116893529892,
         "transformation": "LINEAR",
         "mean": 5.5607991218566895,
         "std": 53.46809768676758
      },
      {
         "n_input": 5,
         "weights": [
            0.054665457457304,
            0.2020769715309143,
            0.31521329283714294,
            0.1737363636493683,
            -0.3060550093650818
         ],
         "bias": -0.17407014966011047,
         "transformation": "LINEAR",
         "mean": -4.591426849365234,
         "std": 50.84859085083008
      },
      {
         "n_input": 5,
         "weights": [
            0.324055552482605,
            0.2939695715904236,
            0.26649099588394165,
            0.24542082846164703,
            0.2802366018295288
         ],
         "bias": -0.17614945769309998,
         "transformation": "SOFTPLUS",
         "mean": 0.0,
         "std": 53.46809768676758
      },
      {
         "n_input": 5,
         "weights": [
            0.311494380235672,
            0.42021045088768005,
            -0.008088045753538609,
            0.37065839767456055,
            0.28119900822639465
         ],
         "bias": -0.210129052400589,
         "transformation": "SOFTPLUS",
         "mean": 0.0,
         "std": 50.84859085083008
      },
      {
         "n_input": 5,
         "weights": [
            0.11176881194114685,
            -0.031970057636499405,
            -0.09202580899000168,
            -0.05932360142469406,
            0.12614229321479797
         ],
         "bias": 0.029769418761134148,
         "transformation": "TANH",
         "mean": 0.0,
         "std": 1.0
      }
   ]
}